{"x":-0.7762546734513883,"y":0.21550930976706456,"xVel":0.0010767073836927933,"yVel":0.003772174880414324,"rot":-17.592124040525416,"corners":[{"x":-0.0036915161797947387,"y":0.03333725706014691},{"x":-0.024454895940240653,"y":-0.022955567179923905},{"x":0.0036915161797947387,"y":-0.03333725706014691},{"x":0.024454895940240653,"y":0.022955567179923905}],"vision":[0.07754545365804387,0.2694549354479598,0.42019281398839353,0.20443130327230827,0.10852599381966611],"timesUpdated":4733,"dead":false,"brain":{"shape":[5,4,3,2],"network":[[{"val":0.07754545365804387},{"val":0.2694549354479598},{"val":0.42019281398839353},{"val":0.20443130327230827},{"val":0.10852599381966611}],[{"children":[{"val":0.07754545365804387},{"val":0.2694549354479598},{"val":0.42019281398839353},{"val":0.20443130327230827},{"val":0.10852599381966611}],"weights":[0.6374344162425805,0.8868340656236254,0.41933639821837926,-0.7285379592108655,-0.3016838579250719],"bias":0.36630227961606915},{"children":[{"val":0.07754545365804387},{"val":0.2694549354479598},{"val":0.42019281398839353},{"val":0.20443130327230827},{"val":0.10852599381966611}],"weights":[-0.4813228876054052,0.4735194456742372,0.44469471795345916,0.17771922160606507,-0.6014270036615823],"bias":-0.22888823320199253},{"children":[{"val":0.07754545365804387},{"val":0.2694549354479598},{"val":0.42019281398839353},{"val":0.20443130327230827},{"val":0.10852599381966611}],"weights":[0.5442502982727038,0.30763238334415377,0.13980386639302028,-0.053700462438277544,0.04010125650348273],"bias":-0.20342815551093363},{"children":[{"val":0.07754545365804387},{"val":0.2694549354479598},{"val":0.42019281398839353},{"val":0.20443130327230827},{"val":0.10852599381966611}],"weights":[-0.8518472130981669,-0.47259110378446667,-0.7324525075996686,0.7652311367576461,0.2997652089510827],"bias":-0.2339858772545837}],[{"children":[{"children":[{"val":0.07754545365804387},{"val":0.2694549354479598},{"val":0.42019281398839353},{"val":0.20443130327230827},{"val":0.10852599381966611}],"weights":[0.6374344162425805,0.8868340656236254,0.41933639821837926,-0.7285379592108655,-0.3016838579250719],"bias":0.36630227961606915},{"children":[{"val":0.07754545365804387},{"val":0.2694549354479598},{"val":0.42019281398839353},{"val":0.20443130327230827},{"val":0.10852599381966611}],"weights":[-0.4813228876054052,0.4735194456742372,0.44469471795345916,0.17771922160606507,-0.6014270036615823],"bias":-0.22888823320199253},{"children":[{"val":0.07754545365804387},{"val":0.2694549354479598},{"val":0.42019281398839353},{"val":0.20443130327230827},{"val":0.10852599381966611}],"weights":[0.5442502982727038,0.30763238334415377,0.13980386639302028,-0.053700462438277544,0.04010125650348273],"bias":-0.20342815551093363},{"children":[{"val":0.07754545365804387},{"val":0.2694549354479598},{"val":0.42019281398839353},{"val":0.20443130327230827},{"val":0.10852599381966611}],"weights":[-0.8518472130981669,-0.47259110378446667,-0.7324525075996686,0.7652311367576461,0.2997652089510827],"bias":-0.2339858772545837}],"weights":[-0.23057837091905428,0.8730820782282052,-0.4426981198539617,-0.6111283203282691],"bias":-0.1828855985446186},{"children":[{"children":[{"val":0.07754545365804387},{"val":0.2694549354479598},{"val":0.42019281398839353},{"val":0.20443130327230827},{"val":0.10852599381966611}],"weights":[0.6374344162425805,0.8868340656236254,0.41933639821837926,-0.7285379592108655,-0.3016838579250719],"bias":0.36630227961606915},{"children":[{"val":0.07754545365804387},{"val":0.2694549354479598},{"val":0.42019281398839353},{"val":0.20443130327230827},{"val":0.10852599381966611}],"weights":[-0.4813228876054052,0.4735194456742372,0.44469471795345916,0.17771922160606507,-0.6014270036615823],"bias":-0.22888823320199253},{"children":[{"val":0.07754545365804387},{"val":0.2694549354479598},{"val":0.42019281398839353},{"val":0.20443130327230827},{"val":0.10852599381966611}],"weights":[0.5442502982727038,0.30763238334415377,0.13980386639302028,-0.053700462438277544,0.04010125650348273],"bias":-0.20342815551093363},{"children":[{"val":0.07754545365804387},{"val":0.2694549354479598},{"val":0.42019281398839353},{"val":0.20443130327230827},{"val":0.10852599381966611}],"weights":[-0.8518472130981669,-0.47259110378446667,-0.7324525075996686,0.7652311367576461,0.2997652089510827],"bias":-0.2339858772545837}],"weights":[0.7937208702019392,0.19201483428153074,-0.36934847726559267,0.027036481151223063],"bias":-0.15210563820378203},{"children":[{"children":[{"val":0.07754545365804387},{"val":0.2694549354479598},{"val":0.42019281398839353},{"val":0.20443130327230827},{"val":0.10852599381966611}],"weights":[0.6374344162425805,0.8868340656236254,0.41933639821837926,-0.7285379592108655,-0.3016838579250719],"bias":0.36630227961606915},{"children":[{"val":0.07754545365804387},{"val":0.2694549354479598},{"val":0.42019281398839353},{"val":0.20443130327230827},{"val":0.10852599381966611}],"weights":[-0.4813228876054052,0.4735194456742372,0.44469471795345916,0.17771922160606507,-0.6014270036615823],"bias":-0.22888823320199253},{"children":[{"val":0.07754545365804387},{"val":0.2694549354479598},{"val":0.42019281398839353},{"val":0.20443130327230827},{"val":0.10852599381966611}],"weights":[0.5442502982727038,0.30763238334415377,0.13980386639302028,-0.053700462438277544,0.04010125650348273],"bias":-0.20342815551093363},{"children":[{"val":0.07754545365804387},{"val":0.2694549354479598},{"val":0.42019281398839353},{"val":0.20443130327230827},{"val":0.10852599381966611}],"weights":[-0.8518472130981669,-0.47259110378446667,-0.7324525075996686,0.7652311367576461,0.2997652089510827],"bias":-0.2339858772545837}],"weights":[0.20360980417103208,-0.369899596876892,-0.6257004751168564,0.3407898973185445],"bias":0.03777430247462607}],[{"children":[{"children":[{"children":[{"val":0.07754545365804387},{"val":0.2694549354479598},{"val":0.42019281398839353},{"val":0.20443130327230827},{"val":0.10852599381966611}],"weights":[0.6374344162425805,0.8868340656236254,0.41933639821837926,-0.7285379592108655,-0.3016838579250719],"bias":0.36630227961606915},{"children":[{"val":0.07754545365804387},{"val":0.2694549354479598},{"val":0.42019281398839353},{"val":0.20443130327230827},{"val":0.10852599381966611}],"weights":[-0.4813228876054052,0.4735194456742372,0.44469471795345916,0.17771922160606507,-0.6014270036615823],"bias":-0.22888823320199253},{"children":[{"val":0.07754545365804387},{"val":0.2694549354479598},{"val":0.42019281398839353},{"val":0.20443130327230827},{"val":0.10852599381966611}],"weights":[0.5442502982727038,0.30763238334415377,0.13980386639302028,-0.053700462438277544,0.04010125650348273],"bias":-0.20342815551093363},{"children":[{"val":0.07754545365804387},{"val":0.2694549354479598},{"val":0.42019281398839353},{"val":0.20443130327230827},{"val":0.10852599381966611}],"weights":[-0.8518472130981669,-0.47259110378446667,-0.7324525075996686,0.7652311367576461,0.2997652089510827],"bias":-0.2339858772545837}],"weights":[-0.23057837091905428,0.8730820782282052,-0.4426981198539617,-0.6111283203282691],"bias":-0.1828855985446186},{"children":[{"children":[{"val":0.07754545365804387},{"val":0.2694549354479598},{"val":0.42019281398839353},{"val":0.20443130327230827},{"val":0.10852599381966611}],"weights":[0.6374344162425805,0.8868340656236254,0.41933639821837926,-0.7285379592108655,-0.3016838579250719],"bias":0.36630227961606915},{"children":[{"val":0.07754545365804387},{"val":0.2694549354479598},{"val":0.42019281398839353},{"val":0.20443130327230827},{"val":0.10852599381966611}],"weights":[-0.4813228876054052,0.4735194456742372,0.44469471795345916,0.17771922160606507,-0.6014270036615823],"bias":-0.22888823320199253},{"children":[{"val":0.07754545365804387},{"val":0.2694549354479598},{"val":0.42019281398839353},{"val":0.20443130327230827},{"val":0.10852599381966611}],"weights":[0.5442502982727038,0.30763238334415377,0.13980386639302028,-0.053700462438277544,0.04010125650348273],"bias":-0.20342815551093363},{"children":[{"val":0.07754545365804387},{"val":0.2694549354479598},{"val":0.42019281398839353},{"val":0.20443130327230827},{"val":0.10852599381966611}],"weights":[-0.8518472130981669,-0.47259110378446667,-0.7324525075996686,0.7652311367576461,0.2997652089510827],"bias":-0.2339858772545837}],"weights":[0.7937208702019392,0.19201483428153074,-0.36934847726559267,0.027036481151223063],"bias":-0.15210563820378203},{"children":[{"children":[{"val":0.07754545365804387},{"val":0.2694549354479598},{"val":0.42019281398839353},{"val":0.20443130327230827},{"val":0.10852599381966611}],"weights":[0.6374344162425805,0.8868340656236254,0.41933639821837926,-0.7285379592108655,-0.3016838579250719],"bias":0.36630227961606915},{"children":[{"val":0.07754545365804387},{"val":0.2694549354479598},{"val":0.42019281398839353},{"val":0.20443130327230827},{"val":0.10852599381966611}],"weights":[-0.4813228876054052,0.4735194456742372,0.44469471795345916,0.17771922160606507,-0.6014270036615823],"bias":-0.22888823320199253},{"children":[{"val":0.07754545365804387},{"val":0.2694549354479598},{"val":0.42019281398839353},{"val":0.20443130327230827},{"val":0.10852599381966611}],"weights":[0.5442502982727038,0.30763238334415377,0.13980386639302028,-0.053700462438277544,0.04010125650348273],"bias":-0.20342815551093363},{"children":[{"val":0.07754545365804387},{"val":0.2694549354479598},{"val":0.42019281398839353},{"val":0.20443130327230827},{"val":0.10852599381966611}],"weights":[-0.8518472130981669,-0.47259110378446667,-0.7324525075996686,0.7652311367576461,0.2997652089510827],"bias":-0.2339858772545837}],"weights":[0.20360980417103208,-0.369899596876892,-0.6257004751168564,0.3407898973185445],"bias":0.03777430247462607}],"weights":[-0.17066299061232074,0.6508294909808714,-0.0556260903516424],"bias":0.2661726490538524},{"children":[{"children":[{"children":[{"val":0.07754545365804387},{"val":0.2694549354479598},{"val":0.42019281398839353},{"val":0.20443130327230827},{"val":0.10852599381966611}],"weights":[0.6374344162425805,0.8868340656236254,0.41933639821837926,-0.7285379592108655,-0.3016838579250719],"bias":0.36630227961606915},{"children":[{"val":0.07754545365804387},{"val":0.2694549354479598},{"val":0.42019281398839353},{"val":0.20443130327230827},{"val":0.10852599381966611}],"weights":[-0.4813228876054052,0.4735194456742372,0.44469471795345916,0.17771922160606507,-0.6014270036615823],"bias":-0.22888823320199253},{"children":[{"val":0.07754545365804387},{"val":0.2694549354479598},{"val":0.42019281398839353},{"val":0.20443130327230827},{"val":0.10852599381966611}],"weights":[0.5442502982727038,0.30763238334415377,0.13980386639302028,-0.053700462438277544,0.04010125650348273],"bias":-0.20342815551093363},{"children":[{"val":0.07754545365804387},{"val":0.2694549354479598},{"val":0.42019281398839353},{"val":0.20443130327230827},{"val":0.10852599381966611}],"weights":[-0.8518472130981669,-0.47259110378446667,-0.7324525075996686,0.7652311367576461,0.2997652089510827],"bias":-0.2339858772545837}],"weights":[-0.23057837091905428,0.8730820782282052,-0.4426981198539617,-0.6111283203282691],"bias":-0.1828855985446186},{"children":[{"children":[{"val":0.07754545365804387},{"val":0.2694549354479598},{"val":0.42019281398839353},{"val":0.20443130327230827},{"val":0.10852599381966611}],"weights":[0.6374344162425805,0.8868340656236254,0.41933639821837926,-0.7285379592108655,-0.3016838579250719],"bias":0.36630227961606915},{"children":[{"val":0.07754545365804387},{"val":0.2694549354479598},{"val":0.42019281398839353},{"val":0.20443130327230827},{"val":0.10852599381966611}],"weights":[-0.4813228876054052,0.4735194456742372,0.44469471795345916,0.17771922160606507,-0.6014270036615823],"bias":-0.22888823320199253},{"children":[{"val":0.07754545365804387},{"val":0.2694549354479598},{"val":0.42019281398839353},{"val":0.20443130327230827},{"val":0.10852599381966611}],"weights":[0.5442502982727038,0.30763238334415377,0.13980386639302028,-0.053700462438277544,0.04010125650348273],"bias":-0.20342815551093363},{"children":[{"val":0.07754545365804387},{"val":0.2694549354479598},{"val":0.42019281398839353},{"val":0.20443130327230827},{"val":0.10852599381966611}],"weights":[-0.8518472130981669,-0.47259110378446667,-0.7324525075996686,0.7652311367576461,0.2997652089510827],"bias":-0.2339858772545837}],"weights":[0.7937208702019392,0.19201483428153074,-0.36934847726559267,0.027036481151223063],"bias":-0.15210563820378203},{"children":[{"children":[{"val":0.07754545365804387},{"val":0.2694549354479598},{"val":0.42019281398839353},{"val":0.20443130327230827},{"val":0.10852599381966611}],"weights":[0.6374344162425805,0.8868340656236254,0.41933639821837926,-0.7285379592108655,-0.3016838579250719],"bias":0.36630227961606915},{"children":[{"val":0.07754545365804387},{"val":0.2694549354479598},{"val":0.42019281398839353},{"val":0.20443130327230827},{"val":0.10852599381966611}],"weights":[-0.4813228876054052,0.4735194456742372,0.44469471795345916,0.17771922160606507,-0.6014270036615823],"bias":-0.22888823320199253},{"children":[{"val":0.07754545365804387},{"val":0.2694549354479598},{"val":0.42019281398839353},{"val":0.20443130327230827},{"val":0.10852599381966611}],"weights":[0.5442502982727038,0.30763238334415377,0.13980386639302028,-0.053700462438277544,0.04010125650348273],"bias":-0.20342815551093363},{"children":[{"val":0.07754545365804387},{"val":0.2694549354479598},{"val":0.42019281398839353},{"val":0.20443130327230827},{"val":0.10852599381966611}],"weights":[-0.8518472130981669,-0.47259110378446667,-0.7324525075996686,0.7652311367576461,0.2997652089510827],"bias":-0.2339858772545837}],"weights":[0.20360980417103208,-0.369899596876892,-0.6257004751168564,0.3407898973185445],"bias":0.03777430247462607}],"weights":[-0.2649381308082679,-0.45660531293346907,0.970800661378133],"bias":0.5164998882772607}]]}}