{"x":-0.5911059944940837,"y":0.5140824931695199,"xVel":0.0028152377603170285,"yVel":0.0027762161976328478,"rot":-87.31212404052808,"corners":[{"x":0.013513531288885595,"y":0.030698281256518495},{"x":-0.03266674377854602,"y":-0.007608143722802586},{"x":-0.013513531288885595,"y":-0.030698281256518495},{"x":0.03266674377854602,"y":0.007608143722802586}],"vision":[0.06682961791829319,0.33633599167297756,0.3702717149293269,0.18484862541327843,0.13415139574684765],"timesUpdated":20662,"dead":false,"brain":{"shape":[5,4,3,2],"network":[[{"val":0.06682961791829319},{"val":0.33633599167297756},{"val":0.3702717149293269},{"val":0.18484862541327843},{"val":0.13415139574684765}],[{"children":[{"val":0.06682961791829319},{"val":0.33633599167297756},{"val":0.3702717149293269},{"val":0.18484862541327843},{"val":0.13415139574684765}],"weights":[-0.13609319047434768,-0.39598294485595914,0.23135019895792186,0.11240034121454329,-0.13763332557991528],"bias":-0.8950120903914279},{"children":[{"val":0.06682961791829319},{"val":0.33633599167297756},{"val":0.3702717149293269},{"val":0.18484862541327843},{"val":0.13415139574684765}],"weights":[-1.0888290149444606,0.5557361132265346,0.5529124520069082,-0.5842567195411674,-0.11858809273421989],"bias":-0.49862220892328313},{"children":[{"val":0.06682961791829319},{"val":0.33633599167297756},{"val":0.3702717149293269},{"val":0.18484862541327843},{"val":0.13415139574684765}],"weights":[-0.16117188252054088,1.1529377995439571,0.07211901585880587,-0.6556574940280147,-0.2869957567500914],"bias":0.32500398583068374},{"children":[{"val":0.06682961791829319},{"val":0.33633599167297756},{"val":0.3702717149293269},{"val":0.18484862541327843},{"val":0.13415139574684765}],"weights":[-0.24426351466352328,1.0062444253476257,-0.2200683774450684,0.2994301526982937,-0.7448938577537667],"bias":0.4983266617323846}],[{"children":[{"children":[{"val":0.06682961791829319},{"val":0.33633599167297756},{"val":0.3702717149293269},{"val":0.18484862541327843},{"val":0.13415139574684765}],"weights":[-0.13609319047434768,-0.39598294485595914,0.23135019895792186,0.11240034121454329,-0.13763332557991528],"bias":-0.8950120903914279},{"children":[{"val":0.06682961791829319},{"val":0.33633599167297756},{"val":0.3702717149293269},{"val":0.18484862541327843},{"val":0.13415139574684765}],"weights":[-1.0888290149444606,0.5557361132265346,0.5529124520069082,-0.5842567195411674,-0.11858809273421989],"bias":-0.49862220892328313},{"children":[{"val":0.06682961791829319},{"val":0.33633599167297756},{"val":0.3702717149293269},{"val":0.18484862541327843},{"val":0.13415139574684765}],"weights":[-0.16117188252054088,1.1529377995439571,0.07211901585880587,-0.6556574940280147,-0.2869957567500914],"bias":0.32500398583068374},{"children":[{"val":0.06682961791829319},{"val":0.33633599167297756},{"val":0.3702717149293269},{"val":0.18484862541327843},{"val":0.13415139574684765}],"weights":[-0.24426351466352328,1.0062444253476257,-0.2200683774450684,0.2994301526982937,-0.7448938577537667],"bias":0.4983266617323846}],"weights":[-0.2594668971525621,-0.09683304385811814,-1.7438725859641897,-0.1748074586893155],"bias":-0.5885379056848337},{"children":[{"children":[{"val":0.06682961791829319},{"val":0.33633599167297756},{"val":0.3702717149293269},{"val":0.18484862541327843},{"val":0.13415139574684765}],"weights":[-0.13609319047434768,-0.39598294485595914,0.23135019895792186,0.11240034121454329,-0.13763332557991528],"bias":-0.8950120903914279},{"children":[{"val":0.06682961791829319},{"val":0.33633599167297756},{"val":0.3702717149293269},{"val":0.18484862541327843},{"val":0.13415139574684765}],"weights":[-1.0888290149444606,0.5557361132265346,0.5529124520069082,-0.5842567195411674,-0.11858809273421989],"bias":-0.49862220892328313},{"children":[{"val":0.06682961791829319},{"val":0.33633599167297756},{"val":0.3702717149293269},{"val":0.18484862541327843},{"val":0.13415139574684765}],"weights":[-0.16117188252054088,1.1529377995439571,0.07211901585880587,-0.6556574940280147,-0.2869957567500914],"bias":0.32500398583068374},{"children":[{"val":0.06682961791829319},{"val":0.33633599167297756},{"val":0.3702717149293269},{"val":0.18484862541327843},{"val":0.13415139574684765}],"weights":[-0.24426351466352328,1.0062444253476257,-0.2200683774450684,0.2994301526982937,-0.7448938577537667],"bias":0.4983266617323846}],"weights":[-0.04254416348473872,0.02983008934912247,0.128259572770335,0.42239331753756254],"bias":-0.1564822401745156},{"children":[{"children":[{"val":0.06682961791829319},{"val":0.33633599167297756},{"val":0.3702717149293269},{"val":0.18484862541327843},{"val":0.13415139574684765}],"weights":[-0.13609319047434768,-0.39598294485595914,0.23135019895792186,0.11240034121454329,-0.13763332557991528],"bias":-0.8950120903914279},{"children":[{"val":0.06682961791829319},{"val":0.33633599167297756},{"val":0.3702717149293269},{"val":0.18484862541327843},{"val":0.13415139574684765}],"weights":[-1.0888290149444606,0.5557361132265346,0.5529124520069082,-0.5842567195411674,-0.11858809273421989],"bias":-0.49862220892328313},{"children":[{"val":0.06682961791829319},{"val":0.33633599167297756},{"val":0.3702717149293269},{"val":0.18484862541327843},{"val":0.13415139574684765}],"weights":[-0.16117188252054088,1.1529377995439571,0.07211901585880587,-0.6556574940280147,-0.2869957567500914],"bias":0.32500398583068374},{"children":[{"val":0.06682961791829319},{"val":0.33633599167297756},{"val":0.3702717149293269},{"val":0.18484862541327843},{"val":0.13415139574684765}],"weights":[-0.24426351466352328,1.0062444253476257,-0.2200683774450684,0.2994301526982937,-0.7448938577537667],"bias":0.4983266617323846}],"weights":[-0.06929384415488188,-0.33515995717997427,0.4816857732284219,0.49390385270807186],"bias":-0.1553180648843026}],[{"children":[{"children":[{"children":[{"val":0.06682961791829319},{"val":0.33633599167297756},{"val":0.3702717149293269},{"val":0.18484862541327843},{"val":0.13415139574684765}],"weights":[-0.13609319047434768,-0.39598294485595914,0.23135019895792186,0.11240034121454329,-0.13763332557991528],"bias":-0.8950120903914279},{"children":[{"val":0.06682961791829319},{"val":0.33633599167297756},{"val":0.3702717149293269},{"val":0.18484862541327843},{"val":0.13415139574684765}],"weights":[-1.0888290149444606,0.5557361132265346,0.5529124520069082,-0.5842567195411674,-0.11858809273421989],"bias":-0.49862220892328313},{"children":[{"val":0.06682961791829319},{"val":0.33633599167297756},{"val":0.3702717149293269},{"val":0.18484862541327843},{"val":0.13415139574684765}],"weights":[-0.16117188252054088,1.1529377995439571,0.07211901585880587,-0.6556574940280147,-0.2869957567500914],"bias":0.32500398583068374},{"children":[{"val":0.06682961791829319},{"val":0.33633599167297756},{"val":0.3702717149293269},{"val":0.18484862541327843},{"val":0.13415139574684765}],"weights":[-0.24426351466352328,1.0062444253476257,-0.2200683774450684,0.2994301526982937,-0.7448938577537667],"bias":0.4983266617323846}],"weights":[-0.2594668971525621,-0.09683304385811814,-1.7438725859641897,-0.1748074586893155],"bias":-0.5885379056848337},{"children":[{"children":[{"val":0.06682961791829319},{"val":0.33633599167297756},{"val":0.3702717149293269},{"val":0.18484862541327843},{"val":0.13415139574684765}],"weights":[-0.13609319047434768,-0.39598294485595914,0.23135019895792186,0.11240034121454329,-0.13763332557991528],"bias":-0.8950120903914279},{"children":[{"val":0.06682961791829319},{"val":0.33633599167297756},{"val":0.3702717149293269},{"val":0.18484862541327843},{"val":0.13415139574684765}],"weights":[-1.0888290149444606,0.5557361132265346,0.5529124520069082,-0.5842567195411674,-0.11858809273421989],"bias":-0.49862220892328313},{"children":[{"val":0.06682961791829319},{"val":0.33633599167297756},{"val":0.3702717149293269},{"val":0.18484862541327843},{"val":0.13415139574684765}],"weights":[-0.16117188252054088,1.1529377995439571,0.07211901585880587,-0.6556574940280147,-0.2869957567500914],"bias":0.32500398583068374},{"children":[{"val":0.06682961791829319},{"val":0.33633599167297756},{"val":0.3702717149293269},{"val":0.18484862541327843},{"val":0.13415139574684765}],"weights":[-0.24426351466352328,1.0062444253476257,-0.2200683774450684,0.2994301526982937,-0.7448938577537667],"bias":0.4983266617323846}],"weights":[-0.04254416348473872,0.02983008934912247,0.128259572770335,0.42239331753756254],"bias":-0.1564822401745156},{"children":[{"children":[{"val":0.06682961791829319},{"val":0.33633599167297756},{"val":0.3702717149293269},{"val":0.18484862541327843},{"val":0.13415139574684765}],"weights":[-0.13609319047434768,-0.39598294485595914,0.23135019895792186,0.11240034121454329,-0.13763332557991528],"bias":-0.8950120903914279},{"children":[{"val":0.06682961791829319},{"val":0.33633599167297756},{"val":0.3702717149293269},{"val":0.18484862541327843},{"val":0.13415139574684765}],"weights":[-1.0888290149444606,0.5557361132265346,0.5529124520069082,-0.5842567195411674,-0.11858809273421989],"bias":-0.49862220892328313},{"children":[{"val":0.06682961791829319},{"val":0.33633599167297756},{"val":0.3702717149293269},{"val":0.18484862541327843},{"val":0.13415139574684765}],"weights":[-0.16117188252054088,1.1529377995439571,0.07211901585880587,-0.6556574940280147,-0.2869957567500914],"bias":0.32500398583068374},{"children":[{"val":0.06682961791829319},{"val":0.33633599167297756},{"val":0.3702717149293269},{"val":0.18484862541327843},{"val":0.13415139574684765}],"weights":[-0.24426351466352328,1.0062444253476257,-0.2200683774450684,0.2994301526982937,-0.7448938577537667],"bias":0.4983266617323846}],"weights":[-0.06929384415488188,-0.33515995717997427,0.4816857732284219,0.49390385270807186],"bias":-0.1553180648843026}],"weights":[-0.45097473576770297,0.09879958064611169,0.38420783865599734],"bias":-0.21352722113467804},{"children":[{"children":[{"children":[{"val":0.06682961791829319},{"val":0.33633599167297756},{"val":0.3702717149293269},{"val":0.18484862541327843},{"val":0.13415139574684765}],"weights":[-0.13609319047434768,-0.39598294485595914,0.23135019895792186,0.11240034121454329,-0.13763332557991528],"bias":-0.8950120903914279},{"children":[{"val":0.06682961791829319},{"val":0.33633599167297756},{"val":0.3702717149293269},{"val":0.18484862541327843},{"val":0.13415139574684765}],"weights":[-1.0888290149444606,0.5557361132265346,0.5529124520069082,-0.5842567195411674,-0.11858809273421989],"bias":-0.49862220892328313},{"children":[{"val":0.06682961791829319},{"val":0.33633599167297756},{"val":0.3702717149293269},{"val":0.18484862541327843},{"val":0.13415139574684765}],"weights":[-0.16117188252054088,1.1529377995439571,0.07211901585880587,-0.6556574940280147,-0.2869957567500914],"bias":0.32500398583068374},{"children":[{"val":0.06682961791829319},{"val":0.33633599167297756},{"val":0.3702717149293269},{"val":0.18484862541327843},{"val":0.13415139574684765}],"weights":[-0.24426351466352328,1.0062444253476257,-0.2200683774450684,0.2994301526982937,-0.7448938577537667],"bias":0.4983266617323846}],"weights":[-0.2594668971525621,-0.09683304385811814,-1.7438725859641897,-0.1748074586893155],"bias":-0.5885379056848337},{"children":[{"children":[{"val":0.06682961791829319},{"val":0.33633599167297756},{"val":0.3702717149293269},{"val":0.18484862541327843},{"val":0.13415139574684765}],"weights":[-0.13609319047434768,-0.39598294485595914,0.23135019895792186,0.11240034121454329,-0.13763332557991528],"bias":-0.8950120903914279},{"children":[{"val":0.06682961791829319},{"val":0.33633599167297756},{"val":0.3702717149293269},{"val":0.18484862541327843},{"val":0.13415139574684765}],"weights":[-1.0888290149444606,0.5557361132265346,0.5529124520069082,-0.5842567195411674,-0.11858809273421989],"bias":-0.49862220892328313},{"children":[{"val":0.06682961791829319},{"val":0.33633599167297756},{"val":0.3702717149293269},{"val":0.18484862541327843},{"val":0.13415139574684765}],"weights":[-0.16117188252054088,1.1529377995439571,0.07211901585880587,-0.6556574940280147,-0.2869957567500914],"bias":0.32500398583068374},{"children":[{"val":0.06682961791829319},{"val":0.33633599167297756},{"val":0.3702717149293269},{"val":0.18484862541327843},{"val":0.13415139574684765}],"weights":[-0.24426351466352328,1.0062444253476257,-0.2200683774450684,0.2994301526982937,-0.7448938577537667],"bias":0.4983266617323846}],"weights":[-0.04254416348473872,0.02983008934912247,0.128259572770335,0.42239331753756254],"bias":-0.1564822401745156},{"children":[{"children":[{"val":0.06682961791829319},{"val":0.33633599167297756},{"val":0.3702717149293269},{"val":0.18484862541327843},{"val":0.13415139574684765}],"weights":[-0.13609319047434768,-0.39598294485595914,0.23135019895792186,0.11240034121454329,-0.13763332557991528],"bias":-0.8950120903914279},{"children":[{"val":0.06682961791829319},{"val":0.33633599167297756},{"val":0.3702717149293269},{"val":0.18484862541327843},{"val":0.13415139574684765}],"weights":[-1.0888290149444606,0.5557361132265346,0.5529124520069082,-0.5842567195411674,-0.11858809273421989],"bias":-0.49862220892328313},{"children":[{"val":0.06682961791829319},{"val":0.33633599167297756},{"val":0.3702717149293269},{"val":0.18484862541327843},{"val":0.13415139574684765}],"weights":[-0.16117188252054088,1.1529377995439571,0.07211901585880587,-0.6556574940280147,-0.2869957567500914],"bias":0.32500398583068374},{"children":[{"val":0.06682961791829319},{"val":0.33633599167297756},{"val":0.3702717149293269},{"val":0.18484862541327843},{"val":0.13415139574684765}],"weights":[-0.24426351466352328,1.0062444253476257,-0.2200683774450684,0.2994301526982937,-0.7448938577537667],"bias":0.4983266617323846}],"weights":[-0.06929384415488188,-0.33515995717997427,0.4816857732284219,0.49390385270807186],"bias":-0.1553180648843026}],"weights":[0.43666223763733064,-1.00217801138284,-0.5639134641170913],"bias":0.8084557873580602}]]}}